


    // !!! This file is generated using emlearn !!!

    #include <eml_trees.h>
    

EmlTreesNode decision_tree_nodes[195] = {
  { 188, 3564.0650634765625, 1, 7 },
  { 922, 575788.0, 2, 6 },
  { 8, 43430400.0, 3, 4 },
  { -1, 1, -1, -1 },
  { 777, 2240.4199829101562, 5, 3 },
  { -1, 5, -1, -1 },
  { 22, 1775530.0, 5, 3 },
  { 777, 4497715.0, 8, 185 },
  { 141, 197715.5, 9, 81 },
  { 1, 68292800.0, 10, 59 },
  { 710, 31884.4501953125, 11, 24 },
  { 990, 58629550.0, 12, 20 },
  { 700, 87781.94921875, 13, 21 },
  { 1019, 544181488.0, 14, 19 },
  { 909, 54299.701171875, 15, 16 },
  { 104, 18803.0, 5, 3 },
  { 161, 90035.0, 17, 20 },
  { 568, 363403.0, 18, 5 },
  { 987, 19024420.0, 5, 19 },
  { -1, 2, -1, -1 },
  { -1, 0, -1, -1 },
  { 187, 13744.26953125, 22, 23 },
  { 119, 15452.520263671875, 3, 20 },
  { -1, 9, -1, -1 },
  { 517, 666672000.0, 25, 58 },
  { 1007, 77543252.0, 26, 51 },
  { 388, 25320.05078125, 27, 33 },
  { 506, 19171500.0, 28, 20 },
  { 135, 9866.39501953125, 29, 30 },
  { -1, 3, -1, -1 },
  { 587, 326270.5, 31, 32 },
  { -1, 7, -1, -1 },
  { 15, 11962805.0, 3, 5 },
  { 553, 32318600.0, 34, 49 },
  { 518, 30495750.0, 5, 35 },
  { 479, 7198530.0, 36, 5 },
  { 595, 3401630.0, 37, 46 },
  { 529, 49238100.0, 38, 44 },
  { 990, 6742960.0, 39, 42 },
  { 351, 45860.6484375, 5, 40 },
  { 82, 303599.5, 31, 41 },
  { -1, 6, -1, -1 },
  { 405, 225928.0, 23, 43 },
  { 16, 13308840.0, 3, 29 },
  { 786, 505936.5, 45, 19 },
  { -1, 8, -1, -1 },
  { 428, 602283.0, 19, 47 },
  { 587, 7574505.0, 29, 48 },
  { -1, 4, -1, -1 },
  { 1004, 78082300.0, 50, 19 },
  { 527, 135140000.0, 3, 5 },
  { 899, 764362.0, 52, 54 },
  { 822, 32845.4501953125, 53, 19 },
  { 560, 4535580.0, 3, 20 },
  { 942, 3697580.0, 23, 55 },
  { 84, 1485005.0, 5, 56 },
  { 879, 1272295.0, 57, 20 },
  { 530, 120326552.0, 19, 45 },
  { 26, 14355100.0, 20, 23 },
  { 520, 99081448.0, 60, 67 },
  { 506, 70033800.0, 61, 66 },
  { 1022, 287259008.0, 19, 62 },
  { 596, 534100.5, 63, 64 },
  { 340, 89919.599609375, 48, 29 },
  { 991, 59816750.0, 65, 48 },
  { 866, 1715255.0, 45, 20 },
  { 522, 31438350.0, 48, 23 },
  { 512, 79193448.0, 68, 71 },
  { 972, 4910985.0, 69, 19 },
  { 902, 449497.5, 29, 70 },
  { 731, 111365.150390625, 20, 45 },
  { 161, 90292.80078125, 72, 74 },
  { 410, 147550.5, 73, 45 },
  { 919, 228800.0, 5, 20 },
  { 1005, 39756400.0, 23, 75 },
  { 789, 206820.0, 76, 31 },
  { 554, 67036402.0, 77, 19 },
  { 660, 1113325.0, 78, 20 },
  { 660, 854186.5, 79, 5 },
  { 414, 362984.5, 48, 80 },
  { 155, 152978.5, 29, 23 },
  { 1023, 899633504.0, 82, 143 },
  { 1022, 807329504.0, 83, 117 },
  { 8, 23267150.0, 84, 93 },
  { 446, 2180095.0, 85, 91 },
  { 717, 176401.0, 23, 86 },
  { 13, 22272300.0, 87, 90 },
  { 961, 6287120.0, 88, 45 },
  { 470, 1126449.5, 89, 41 },
  { 414, 496513.5, 31, 5 },
  { 21, 33637950.0, 19, 29 },
  { 1010, 126811500.0, 41, 92 },
  { 825, 360998.5, 29, 23 },
  { 300, 21264.7998046875, 94, 100 },
  { 636, 3168330.0, 95, 20 },
  { 366, 410232.0, 96, 23 },
  { 507, 149814992.0, 97, 20 },
  { 621, 1885190.0, 98, 19 },
  { 865, 771128.0, 29, 99 },
  { 609, 2774340.0, 45, 41 },
  { 648, 2334815.0, 101, 109 },
  { 89, 1653425.0, 102, 41 },
  { 368, 375019.5, 103, 108 },
  { 0, 10348660.0, 104, 106 },
  { 720, 567935.5, 105, 31 },
  { 564, 5928625.0, 20, 5 },
  { 917, 2115180.0, 23, 107 },
  { 149, 352182.5, 19, 48 },
  { 685, 2081175.0, 29, 20 },
  { 511, 126535500.0, 110, 115 },
  { 314, 129494.0, 111, 23 },
  { 867, 971986.0, 23, 112 },
  { 739, 23317.69921875, 29, 113 },
  { 666, 3088375.0, 41, 114 },
  { 623, 3706495.0, 45, 5 },
  { 416, 2815200.0, 116, 41 },
  { 422, 2922805.0, 19, 48 },
  { 507, 100129452.0, 118, 128 },
  { 883, 3724135.0, 119, 125 },
  { 0, 29538100.0, 120, 121 },
  { 508, 41388350.0, 48, 29 },
  { 438, 977367.5, 45, 122 },
  { 165, 429436.0, 123, 29 },
  { 57, 1934620.0, 48, 124 },
  { 290, 75242.10498046875, 23, 5 },
  { 35, 8572105.0, 45, 126 },
  { 922, 4033355.0, 41, 127 },
  { 367, 1245010.0, 31, 48 },
  { 421, 6279640.0, 129, 41 },
  { 812, 382126.5, 130, 137 },
  { 938, 8914325.0, 131, 134 },
  { 113, 521431.5, 132, 23 },
  { 374, 264352.0, 133, 20 },
  { 267, 10825.4150390625, 45, 19 },
  { 488, 36684650.0, 19, 135 },
  { 581, 25215250.0, 136, 20 },
  { 607, 11609760.0, 41, 29 },
  { 1020, 2394545024.0, 138, 48 },
  { 1002, 190002504.0, 139, 141 },
  { 970, 115293600.0, 140, 23 },
  { 611, 15857700.0, 29, 45 },
  { 775, 935325.0, 142, 31 },
  { 141, 2183670.0, 5, 20 },
  { 113, 5038870.0, 144, 184 },
  { 41, 10778400.0, 145, 163 },
  { 133, 1778750.0, 146, 160 },
  { 187, 146333.0, 147, 152 },
  { 504, 21202300.0, 48, 148 },
  { 6, 62478300.0, 45, 149 },
  { 1, 709057504.0, 150, 41 },
  { 929, 4838615.0, 23, 151 },
  { 531, 261214504.0, 19, 20 },
  { 398, 3065600.0, 153, 41 },
  { 45, 12626150.0, 154, 159 },
  { 526, 34321400.0, 155, 157 },
  { 445, 2821280.0, 156, 41 },
  { 983, 22007950.0, 48, 29 },
  { 38, 2631045.0, 158, 48 },
  { 519, 906820024.0, 45, 48 },
  { 728, 1632403.0, 31, 19 },
  { 58, 4434105.0, 45, 161 },
  { 789, 2632545.0, 29, 162 },
  { 417, 3696020.0, 31, 48 },
  { 1013, 131999496.0, 164, 168 },
  { 528, 62127750.0, 41, 165 },
  { 46, 11919400.0, 166, 29 },
  { 603, 11222950.0, 167, 48 },
  { 856, 1731817.0, 29, 31 },
  { 715, 589970.5, 169, 171 },
  { 449, 4725905.0, 170, 20 },
  { 391, 1179222.5, 19, 23 },
  { 513, 1714550016.0, 172, 178 },
  { 639, 6293395.0, 173, 175 },
  { 95, 850182.5, 174, 19 },
  { 853, 2571630.0, 23, 31 },
  { 552, 69086800.0, 176, 45 },
  { 1009, 167170000.0, 29, 177 },
  { 747, 333027.5, 20, 5 },
  { 565, 48013500.0, 179, 182 },
  { 523, 288634496.0, 180, 31 },
  { 640, 9986930.0, 41, 181 },
  { 152, 1822145.0, 29, 45 },
  { 393, 1327545.0, 183, 48 },
  { 459, 12873520.0, 45, 23 },
  { 284, 518992.0, 41, 48 },
  { 1, 274089504.0, 186, 189 },
  { 864, 7260770.0, 29, 187 },
  { 990, 37568400.0, 31, 188 },
  { 51, 29188750.0, 48, 45 },
  { 11, 189284000.0, 190, 194 },
  { 485, 9144790.0, 191, 192 },
  { 778, 10141750.0, 48, 31 },
  { 667, 3017735.0, 29, 193 },
  { 390, 6476470.0, 31, 23 },
  { 549, 224983496.0, 48, 45 } 
};

int32_t decision_tree_tree_roots[1] = { 0 };

EmlTrees decision_tree = {
        195,
        decision_tree_nodes,	  
        1,
        decision_tree_tree_roots,
    };

static inline int32_t decision_tree_tree_0(const float *features, int32_t features_length) {
          if (features[188] < 3564.065063f) {
              if (features[922] < 575788.000000f) {
                  if (features[8] < 43430400.000000f) {
                      return 1;
                  } else {
                      if (features[777] < 2240.419983f) {
                          return 5;
                      } else {
                          return 1;
                      }
                  }
              } else {
                  if (features[22] < 1775530.000000f) {
                      return 5;
                  } else {
                      return 1;
                  }
              }
          } else {
              if (features[777] < 4497715.000000f) {
                  if (features[141] < 197715.500000f) {
                      if (features[1] < 68292800.000000f) {
                          if (features[710] < 31884.450195f) {
                              if (features[990] < 58629550.000000f) {
                                  if (features[700] < 87781.949219f) {
                                      if (features[1019] < 544181488.000000f) {
                                          if (features[909] < 54299.701172f) {
                                              if (features[104] < 18803.000000f) {
                                                  return 5;
                                              } else {
                                                  return 1;
                                              }
                                          } else {
                                              if (features[161] < 90035.000000f) {
                                                  if (features[568] < 363403.000000f) {
                                                      if (features[987] < 19024420.000000f) {
                                                          return 5;
                                                      } else {
                                                          return 2;
                                                      }
                                                  } else {
                                                      return 5;
                                                  }
                                              } else {
                                                  return 0;
                                              }
                                          }
                                      } else {
                                          return 2;
                                      }
                                  } else {
                                      if (features[187] < 13744.269531f) {
                                          if (features[119] < 15452.520264f) {
                                              return 1;
                                          } else {
                                              return 0;
                                          }
                                      } else {
                                          return 9;
                                      }
                                  }
                              } else {
                                  return 0;
                              }
                          } else {
                              if (features[517] < 666672000.000000f) {
                                  if (features[1007] < 77543252.000000f) {
                                      if (features[388] < 25320.050781f) {
                                          if (features[506] < 19171500.000000f) {
                                              if (features[135] < 9866.395020f) {
                                                  return 3;
                                              } else {
                                                  if (features[587] < 326270.500000f) {
                                                      return 7;
                                                  } else {
                                                      if (features[15] < 11962805.000000f) {
                                                          return 1;
                                                      } else {
                                                          return 5;
                                                      }
                                                  }
                                              }
                                          } else {
                                              return 0;
                                          }
                                      } else {
                                          if (features[553] < 32318600.000000f) {
                                              if (features[518] < 30495750.000000f) {
                                                  return 5;
                                              } else {
                                                  if (features[479] < 7198530.000000f) {
                                                      if (features[595] < 3401630.000000f) {
                                                          if (features[529] < 49238100.000000f) {
                                                              if (features[990] < 6742960.000000f) {
                                                                  if (features[351] < 45860.648438f) {
                                                                      return 5;
                                                                  } else {
                                                                      if (features[82] < 303599.500000f) {
                                                                          return 7;
                                                                      } else {
                                                                          return 6;
                                                                      }
                                                                  }
                                                              } else {
                                                                  if (features[405] < 225928.000000f) {
                                                                      return 9;
                                                                  } else {
                                                                      if (features[16] < 13308840.000000f) {
                                                                          return 1;
                                                                      } else {
                                                                          return 3;
                                                                      }
                                                                  }
                                                              }
                                                          } else {
                                                              if (features[786] < 505936.500000f) {
                                                                  return 8;
                                                              } else {
                                                                  return 2;
                                                              }
                                                          }
                                                      } else {
                                                          if (features[428] < 602283.000000f) {
                                                              return 2;
                                                          } else {
                                                              if (features[587] < 7574505.000000f) {
                                                                  return 3;
                                                              } else {
                                                                  return 4;
                                                              }
                                                          }
                                                      }
                                                  } else {
                                                      return 5;
                                                  }
                                              }
                                          } else {
                                              if (features[1004] < 78082300.000000f) {
                                                  if (features[527] < 135140000.000000f) {
                                                      return 1;
                                                  } else {
                                                      return 5;
                                                  }
                                              } else {
                                                  return 2;
                                              }
                                          }
                                      }
                                  } else {
                                      if (features[899] < 764362.000000f) {
                                          if (features[822] < 32845.450195f) {
                                              if (features[560] < 4535580.000000f) {
                                                  return 1;
                                              } else {
                                                  return 0;
                                              }
                                          } else {
                                              return 2;
                                          }
                                      } else {
                                          if (features[942] < 3697580.000000f) {
                                              return 9;
                                          } else {
                                              if (features[84] < 1485005.000000f) {
                                                  return 5;
                                              } else {
                                                  if (features[879] < 1272295.000000f) {
                                                      if (features[530] < 120326552.000000f) {
                                                          return 2;
                                                      } else {
                                                          return 8;
                                                      }
                                                  } else {
                                                      return 0;
                                                  }
                                              }
                                          }
                                      }
                                  }
                              } else {
                                  if (features[26] < 14355100.000000f) {
                                      return 0;
                                  } else {
                                      return 9;
                                  }
                              }
                          }
                      } else {
                          if (features[520] < 99081448.000000f) {
                              if (features[506] < 70033800.000000f) {
                                  if (features[1022] < 287259008.000000f) {
                                      return 2;
                                  } else {
                                      if (features[596] < 534100.500000f) {
                                          if (features[340] < 89919.599609f) {
                                              return 4;
                                          } else {
                                              return 3;
                                          }
                                      } else {
                                          if (features[991] < 59816750.000000f) {
                                              if (features[866] < 1715255.000000f) {
                                                  return 8;
                                              } else {
                                                  return 0;
                                              }
                                          } else {
                                              return 4;
                                          }
                                      }
                                  }
                              } else {
                                  if (features[522] < 31438350.000000f) {
                                      return 4;
                                  } else {
                                      return 9;
                                  }
                              }
                          } else {
                              if (features[512] < 79193448.000000f) {
                                  if (features[972] < 4910985.000000f) {
                                      if (features[902] < 449497.500000f) {
                                          return 3;
                                      } else {
                                          if (features[731] < 111365.150391f) {
                                              return 0;
                                          } else {
                                              return 8;
                                          }
                                      }
                                  } else {
                                      return 2;
                                  }
                              } else {
                                  if (features[161] < 90292.800781f) {
                                      if (features[410] < 147550.500000f) {
                                          if (features[919] < 228800.000000f) {
                                              return 5;
                                          } else {
                                              return 0;
                                          }
                                      } else {
                                          return 8;
                                      }
                                  } else {
                                      if (features[1005] < 39756400.000000f) {
                                          return 9;
                                      } else {
                                          if (features[789] < 206820.000000f) {
                                              if (features[554] < 67036402.000000f) {
                                                  if (features[660] < 1113325.000000f) {
                                                      if (features[660] < 854186.500000f) {
                                                          if (features[414] < 362984.500000f) {
                                                              return 4;
                                                          } else {
                                                              if (features[155] < 152978.500000f) {
                                                                  return 3;
                                                              } else {
                                                                  return 9;
                                                              }
                                                          }
                                                      } else {
                                                          return 5;
                                                      }
                                                  } else {
                                                      return 0;
                                                  }
                                              } else {
                                                  return 2;
                                              }
                                          } else {
                                              return 7;
                                          }
                                      }
                                  }
                              }
                          }
                      }
                  } else {
                      if (features[1023] < 899633504.000000f) {
                          if (features[1022] < 807329504.000000f) {
                              if (features[8] < 23267150.000000f) {
                                  if (features[446] < 2180095.000000f) {
                                      if (features[717] < 176401.000000f) {
                                          return 9;
                                      } else {
                                          if (features[13] < 22272300.000000f) {
                                              if (features[961] < 6287120.000000f) {
                                                  if (features[470] < 1126449.500000f) {
                                                      if (features[414] < 496513.500000f) {
                                                          return 7;
                                                      } else {
                                                          return 5;
                                                      }
                                                  } else {
                                                      return 6;
                                                  }
                                              } else {
                                                  return 8;
                                              }
                                          } else {
                                              if (features[21] < 33637950.000000f) {
                                                  return 2;
                                              } else {
                                                  return 3;
                                              }
                                          }
                                      }
                                  } else {
                                      if (features[1010] < 126811500.000000f) {
                                          return 6;
                                      } else {
                                          if (features[825] < 360998.500000f) {
                                              return 3;
                                          } else {
                                              return 9;
                                          }
                                      }
                                  }
                              } else {
                                  if (features[300] < 21264.799805f) {
                                      if (features[636] < 3168330.000000f) {
                                          if (features[366] < 410232.000000f) {
                                              if (features[507] < 149814992.000000f) {
                                                  if (features[621] < 1885190.000000f) {
                                                      if (features[865] < 771128.000000f) {
                                                          return 3;
                                                      } else {
                                                          if (features[609] < 2774340.000000f) {
                                                              return 8;
                                                          } else {
                                                              return 6;
                                                          }
                                                      }
                                                  } else {
                                                      return 2;
                                                  }
                                              } else {
                                                  return 0;
                                              }
                                          } else {
                                              return 9;
                                          }
                                      } else {
                                          return 0;
                                      }
                                  } else {
                                      if (features[648] < 2334815.000000f) {
                                          if (features[89] < 1653425.000000f) {
                                              if (features[368] < 375019.500000f) {
                                                  if (features[0] < 10348660.000000f) {
                                                      if (features[720] < 567935.500000f) {
                                                          if (features[564] < 5928625.000000f) {
                                                              return 0;
                                                          } else {
                                                              return 5;
                                                          }
                                                      } else {
                                                          return 7;
                                                      }
                                                  } else {
                                                      if (features[917] < 2115180.000000f) {
                                                          return 9;
                                                      } else {
                                                          if (features[149] < 352182.500000f) {
                                                              return 2;
                                                          } else {
                                                              return 4;
                                                          }
                                                      }
                                                  }
                                              } else {
                                                  if (features[685] < 2081175.000000f) {
                                                      return 3;
                                                  } else {
                                                      return 0;
                                                  }
                                              }
                                          } else {
                                              return 6;
                                          }
                                      } else {
                                          if (features[511] < 126535500.000000f) {
                                              if (features[314] < 129494.000000f) {
                                                  if (features[867] < 971986.000000f) {
                                                      return 9;
                                                  } else {
                                                      if (features[739] < 23317.699219f) {
                                                          return 3;
                                                      } else {
                                                          if (features[666] < 3088375.000000f) {
                                                              return 6;
                                                          } else {
                                                              if (features[623] < 3706495.000000f) {
                                                                  return 8;
                                                              } else {
                                                                  return 5;
                                                              }
                                                          }
                                                      }
                                                  }
                                              } else {
                                                  return 9;
                                              }
                                          } else {
                                              if (features[416] < 2815200.000000f) {
                                                  if (features[422] < 2922805.000000f) {
                                                      return 2;
                                                  } else {
                                                      return 4;
                                                  }
                                              } else {
                                                  return 6;
                                              }
                                          }
                                      }
                                  }
                              }
                          } else {
                              if (features[507] < 100129452.000000f) {
                                  if (features[883] < 3724135.000000f) {
                                      if (features[0] < 29538100.000000f) {
                                          if (features[508] < 41388350.000000f) {
                                              return 4;
                                          } else {
                                              return 3;
                                          }
                                      } else {
                                          if (features[438] < 977367.500000f) {
                                              return 8;
                                          } else {
                                              if (features[165] < 429436.000000f) {
                                                  if (features[57] < 1934620.000000f) {
                                                      return 4;
                                                  } else {
                                                      if (features[290] < 75242.104980f) {
                                                          return 9;
                                                      } else {
                                                          return 5;
                                                      }
                                                  }
                                              } else {
                                                  return 3;
                                              }
                                          }
                                      }
                                  } else {
                                      if (features[35] < 8572105.000000f) {
                                          return 8;
                                      } else {
                                          if (features[922] < 4033355.000000f) {
                                              return 6;
                                          } else {
                                              if (features[367] < 1245010.000000f) {
                                                  return 7;
                                              } else {
                                                  return 4;
                                              }
                                          }
                                      }
                                  }
                              } else {
                                  if (features[421] < 6279640.000000f) {
                                      if (features[812] < 382126.500000f) {
                                          if (features[938] < 8914325.000000f) {
                                              if (features[113] < 521431.500000f) {
                                                  if (features[374] < 264352.000000f) {
                                                      if (features[267] < 10825.415039f) {
                                                          return 8;
                                                      } else {
                                                          return 2;
                                                      }
                                                  } else {
                                                      return 0;
                                                  }
                                              } else {
                                                  return 9;
                                              }
                                          } else {
                                              if (features[488] < 36684650.000000f) {
                                                  return 2;
                                              } else {
                                                  if (features[581] < 25215250.000000f) {
                                                      if (features[607] < 11609760.000000f) {
                                                          return 6;
                                                      } else {
                                                          return 3;
                                                      }
                                                  } else {
                                                      return 0;
                                                  }
                                              }
                                          }
                                      } else {
                                          if (features[1020] < 2394545024.000000f) {
                                              if (features[1002] < 190002504.000000f) {
                                                  if (features[970] < 115293600.000000f) {
                                                      if (features[611] < 15857700.000000f) {
                                                          return 3;
                                                      } else {
                                                          return 8;
                                                      }
                                                  } else {
                                                      return 9;
                                                  }
                                              } else {
                                                  if (features[775] < 935325.000000f) {
                                                      if (features[141] < 2183670.000000f) {
                                                          return 5;
                                                      } else {
                                                          return 0;
                                                      }
                                                  } else {
                                                      return 7;
                                                  }
                                              }
                                          } else {
                                              return 4;
                                          }
                                      }
                                  } else {
                                      return 6;
                                  }
                              }
                          }
                      } else {
                          if (features[113] < 5038870.000000f) {
                              if (features[41] < 10778400.000000f) {
                                  if (features[133] < 1778750.000000f) {
                                      if (features[187] < 146333.000000f) {
                                          if (features[504] < 21202300.000000f) {
                                              return 4;
                                          } else {
                                              if (features[6] < 62478300.000000f) {
                                                  return 8;
                                              } else {
                                                  if (features[1] < 709057504.000000f) {
                                                      if (features[929] < 4838615.000000f) {
                                                          return 9;
                                                      } else {
                                                          if (features[531] < 261214504.000000f) {
                                                              return 2;
                                                          } else {
                                                              return 0;
                                                          }
                                                      }
                                                  } else {
                                                      return 6;
                                                  }
                                              }
                                          }
                                      } else {
                                          if (features[398] < 3065600.000000f) {
                                              if (features[45] < 12626150.000000f) {
                                                  if (features[526] < 34321400.000000f) {
                                                      if (features[445] < 2821280.000000f) {
                                                          if (features[983] < 22007950.000000f) {
                                                              return 4;
                                                          } else {
                                                              return 3;
                                                          }
                                                      } else {
                                                          return 6;
                                                      }
                                                  } else {
                                                      if (features[38] < 2631045.000000f) {
                                                          if (features[519] < 906820024.000000f) {
                                                              return 8;
                                                          } else {
                                                              return 4;
                                                          }
                                                      } else {
                                                          return 4;
                                                      }
                                                  }
                                              } else {
                                                  if (features[728] < 1632403.000000f) {
                                                      return 7;
                                                  } else {
                                                      return 2;
                                                  }
                                              }
                                          } else {
                                              return 6;
                                          }
                                      }
                                  } else {
                                      if (features[58] < 4434105.000000f) {
                                          return 8;
                                      } else {
                                          if (features[789] < 2632545.000000f) {
                                              return 3;
                                          } else {
                                              if (features[417] < 3696020.000000f) {
                                                  return 7;
                                              } else {
                                                  return 4;
                                              }
                                          }
                                      }
                                  }
                              } else {
                                  if (features[1013] < 131999496.000000f) {
                                      if (features[528] < 62127750.000000f) {
                                          return 6;
                                      } else {
                                          if (features[46] < 11919400.000000f) {
                                              if (features[603] < 11222950.000000f) {
                                                  if (features[856] < 1731817.000000f) {
                                                      return 3;
                                                  } else {
                                                      return 7;
                                                  }
                                              } else {
                                                  return 4;
                                              }
                                          } else {
                                              return 3;
                                          }
                                      }
                                  } else {
                                      if (features[715] < 589970.500000f) {
                                          if (features[449] < 4725905.000000f) {
                                              if (features[391] < 1179222.500000f) {
                                                  return 2;
                                              } else {
                                                  return 9;
                                              }
                                          } else {
                                              return 0;
                                          }
                                      } else {
                                          if (features[513] < 1714550016.000000f) {
                                              if (features[639] < 6293395.000000f) {
                                                  if (features[95] < 850182.500000f) {
                                                      if (features[853] < 2571630.000000f) {
                                                          return 9;
                                                      } else {
                                                          return 7;
                                                      }
                                                  } else {
                                                      return 2;
                                                  }
                                              } else {
                                                  if (features[552] < 69086800.000000f) {
                                                      if (features[1009] < 167170000.000000f) {
                                                          return 3;
                                                      } else {
                                                          if (features[747] < 333027.500000f) {
                                                              return 0;
                                                          } else {
                                                              return 5;
                                                          }
                                                      }
                                                  } else {
                                                      return 8;
                                                  }
                                              }
                                          } else {
                                              if (features[565] < 48013500.000000f) {
                                                  if (features[523] < 288634496.000000f) {
                                                      if (features[640] < 9986930.000000f) {
                                                          return 6;
                                                      } else {
                                                          if (features[152] < 1822145.000000f) {
                                                              return 3;
                                                          } else {
                                                              return 8;
                                                          }
                                                      }
                                                  } else {
                                                      return 7;
                                                  }
                                              } else {
                                                  if (features[393] < 1327545.000000f) {
                                                      if (features[459] < 12873520.000000f) {
                                                          return 8;
                                                      } else {
                                                          return 9;
                                                      }
                                                  } else {
                                                      return 4;
                                                  }
                                              }
                                          }
                                      }
                                  }
                              }
                          } else {
                              if (features[284] < 518992.000000f) {
                                  return 6;
                              } else {
                                  return 4;
                              }
                          }
                      }
                  }
              } else {
                  if (features[1] < 274089504.000000f) {
                      if (features[864] < 7260770.000000f) {
                          return 3;
                      } else {
                          if (features[990] < 37568400.000000f) {
                              return 7;
                          } else {
                              if (features[51] < 29188750.000000f) {
                                  return 4;
                              } else {
                                  return 8;
                              }
                          }
                      }
                  } else {
                      if (features[11] < 189284000.000000f) {
                          if (features[485] < 9144790.000000f) {
                              if (features[778] < 10141750.000000f) {
                                  return 4;
                              } else {
                                  return 7;
                              }
                          } else {
                              if (features[667] < 3017735.000000f) {
                                  return 3;
                              } else {
                                  if (features[390] < 6476470.000000f) {
                                      return 7;
                                  } else {
                                      return 9;
                                  }
                              }
                          }
                      } else {
                          if (features[549] < 224983496.000000f) {
                              return 4;
                          } else {
                              return 8;
                          }
                      }
                  }
              }
          }
        }
        

int32_t decision_tree_predict(const float *features, int32_t features_length) {

        int32_t votes[10] = {0,};
        int32_t _class = -1;

        _class = decision_tree_tree_0(features, features_length); votes[_class] += 1;
    
        int32_t most_voted_class = -1;
        int32_t most_voted_votes = 0;
        for (int32_t i=0; i<10; i++) {

            if (votes[i] > most_voted_votes) {
                most_voted_class = i;
                most_voted_votes = votes[i];
            }
        }
        return most_voted_class;
    }
    